<Root>
  <ActivationFunctions>
    <Fn id="0" name="SteepenedSigmoid" prob="1" />
  </ActivationFunctions>
  <Networks>
    <Network id="861" birthGen="6" fitness="0">
      <Nodes>
        <Node type="bias" id="0" />
        <Node type="in" id="1" />
        <Node type="in" id="2" />
        <Node type="in" id="3" />
        <Node type="in" id="4" />
        <Node type="in" id="5" />
        <Node type="in" id="6" />
        <Node type="in" id="7" />
        <Node type="in" id="8" />
        <Node type="in" id="9" />
        <Node type="in" id="10" />
        <Node type="in" id="11" />
        <Node type="in" id="12" />
        <Node type="in" id="13" />
        <Node type="in" id="14" />
        <Node type="in" id="15" />
        <Node type="in" id="16" />
        <Node type="in" id="17" />
        <Node type="in" id="18" />
        <Node type="in" id="19" />
        <Node type="in" id="20" />
        <Node type="in" id="21" />
        <Node type="in" id="22" />
        <Node type="in" id="23" />
        <Node type="in" id="24" />
        <Node type="in" id="25" />
        <Node type="in" id="26" />
        <Node type="in" id="27" />
        <Node type="in" id="28" />
        <Node type="in" id="29" />
        <Node type="in" id="30" />
        <Node type="in" id="31" />
        <Node type="in" id="32" />
        <Node type="in" id="33" />
        <Node type="in" id="34" />
        <Node type="in" id="35" />
        <Node type="in" id="36" />
        <Node type="in" id="37" />
        <Node type="in" id="38" />
        <Node type="in" id="39" />
        <Node type="in" id="40" />
        <Node type="in" id="41" />
        <Node type="in" id="42" />
        <Node type="in" id="43" />
        <Node type="in" id="44" />
        <Node type="in" id="45" />
        <Node type="in" id="46" />
        <Node type="in" id="47" />
        <Node type="in" id="48" />
        <Node type="in" id="49" />
        <Node type="in" id="50" />
        <Node type="in" id="51" />
        <Node type="in" id="52" />
        <Node type="in" id="53" />
        <Node type="in" id="54" />
        <Node type="in" id="55" />
        <Node type="in" id="56" />
        <Node type="in" id="57" />
        <Node type="in" id="58" />
        <Node type="in" id="59" />
        <Node type="in" id="60" />
        <Node type="in" id="61" />
        <Node type="in" id="62" />
        <Node type="in" id="63" />
        <Node type="in" id="64" />
        <Node type="in" id="65" />
        <Node type="in" id="66" />
        <Node type="in" id="67" />
        <Node type="in" id="68" />
        <Node type="in" id="69" />
        <Node type="in" id="70" />
        <Node type="in" id="71" />
        <Node type="in" id="72" />
        <Node type="in" id="73" />
        <Node type="in" id="74" />
        <Node type="in" id="75" />
        <Node type="in" id="76" />
        <Node type="in" id="77" />
        <Node type="in" id="78" />
        <Node type="in" id="79" />
        <Node type="in" id="80" />
        <Node type="in" id="81" />
        <Node type="in" id="82" />
        <Node type="in" id="83" />
        <Node type="in" id="84" />
        <Node type="in" id="85" />
        <Node type="in" id="86" />
        <Node type="in" id="87" />
        <Node type="in" id="88" />
        <Node type="in" id="89" />
        <Node type="in" id="90" />
        <Node type="in" id="91" />
        <Node type="in" id="92" />
        <Node type="in" id="93" />
        <Node type="in" id="94" />
        <Node type="in" id="95" />
        <Node type="in" id="96" />
        <Node type="in" id="97" />
        <Node type="in" id="98" />
        <Node type="in" id="99" />
        <Node type="in" id="100" />
        <Node type="out" id="101" />
        <Node type="out" id="102" />
        <Node type="out" id="103" />
        <Node type="out" id="104" />
        <Node type="out" id="105" />
        <Node type="out" id="106" />
        <Node type="out" id="107" />
      </Nodes>
      <Connections>
        <Con id="132" src="3" tgt="104" wght="-0.97286528907716274" />
        <Con id="148" src="5" tgt="106" wght="0.56868760846555233" />
        <Con id="160" src="7" tgt="104" wght="3.31171712372452" />
        <Con id="175" src="9" tgt="105" wght="-3.4263153806847542" />
        <Con id="204" src="13" tgt="106" wght="-3.9085136679932475" />
        <Con id="222" src="16" tgt="103" wght="4.212280111387372" />
        <Con id="236" src="18" tgt="103" wght="1.4108694437891245" />
        <Con id="266" src="22" tgt="105" wght="0.71740009821951389" />
        <Con id="286" src="25" tgt="104" wght="-4.3960074528667228" />
        <Con id="294" src="26" tgt="105" wght="-1.8203661870211363" />
        <Con id="356" src="35" tgt="104" wght="0.90546256396919489" />
        <Con id="357" src="35" tgt="105" wght="2.5516384933143854" />
        <Con id="411" src="43" tgt="103" wght="-0.093656415119767189" />
        <Con id="463" src="50" tgt="106" wght="3.8864107569679618" />
        <Con id="467" src="51" tgt="103" wght="2.6790388999506831" />
        <Con id="479" src="53" tgt="101" wght="-0.031678336672484875" />
        <Con id="486" src="54" tgt="101" wght="-1.8751460639759898" />
        <Con id="497" src="55" tgt="105" wght="-3.0757347727194428" />
        <Con id="526" src="59" tgt="106" wght="4.31869151070714" />
        <Con id="540" src="61" tgt="106" wght="-3.7572669144719839" />
        <Con id="545" src="62" tgt="104" wght="3.2821044372394681" />
        <Con id="568" src="65" tgt="106" wght="-3.7663225503638387" />
        <Con id="608" src="71" tgt="104" wght="-4.8839896032586694" />
        <Con id="617" src="72" tgt="106" wght="2.3129202518612146" />
        <Con id="619" src="73" tgt="101" wght="1.4429909083992243" />
        <Con id="653" src="77" tgt="107" wght="-4.94530885014683" />
        <Con id="673" src="80" tgt="106" wght="-1.3749057333916426" />
        <Con id="683" src="82" tgt="102" wght="4.0577869536355138" />
        <Con id="706" src="85" tgt="104" wght="-2.1616730652749538" />
        <Con id="712" src="86" tgt="103" wght="-0.56884289253503084" />
        <Con id="771" src="94" tgt="106" wght="4.0419023158028722" />
        <Con id="775" src="95" tgt="103" wght="0.964290383271873" />
        <Con id="778" src="95" tgt="106" wght="0.86595202796161175" />
        <Con id="787" src="97" tgt="101" wght="1.1004625586792827" />
        <Con id="791" src="97" tgt="105" wght="-4.5576475234702229" />
      </Connections>
    </Network>
  </Networks>
</Root>