<Root>
  <ActivationFunctions>
    <Fn id="0" name="SteepenedSigmoid" prob="1" />
  </ActivationFunctions>
  <Networks>
    <Network id="249673" birthGen="2079" fitness="882">
      <Nodes>
        <Node type="bias" id="0" />
        <Node type="in" id="1" />
        <Node type="in" id="2" />
        <Node type="in" id="3" />
        <Node type="in" id="4" />
        <Node type="in" id="5" />
        <Node type="in" id="6" />
        <Node type="in" id="7" />
        <Node type="in" id="8" />
        <Node type="in" id="9" />
        <Node type="out" id="10" />
        <Node type="out" id="11" />
        <Node type="out" id="12" />
        <Node type="out" id="13" />
        <Node type="out" id="14" />
        <Node type="out" id="15" />
        <Node type="out" id="16" />
        <Node type="out" id="17" />
        <Node type="out" id="18" />
        <Node type="hid" id="217" />
      </Nodes>
      <Connections>
        <Con id="19" src="0" tgt="10" wght="2.4215647547163757" />
        <Con id="33" src="1" tgt="15" wght="0.56602640077471733" />
        <Con id="58" src="4" tgt="13" wght="-2.9374501299659967" />
        <Con id="72" src="5" tgt="18" wght="7.5821039984927161" />
        <Con id="85" src="7" tgt="13" wght="-3.5010072584673932" />
        <Con id="90" src="7" tgt="18" wght="-3.1727262029224366" />
        <Con id="97" src="8" tgt="16" wght="0.25015082388078791" />
        <Con id="100" src="9" tgt="10" wght="2.17983043175977" />
        <Con id="103" src="9" tgt="13" wght="-0.81272145251077821" />
        <Con id="105" src="9" tgt="15" wght="7.4191505697113609" />
        <Con id="111" src="11" tgt="13" wght="0.49207884592658113" />
        <Con id="112" src="16" tgt="10" wght="11.240290665019449" />
        <Con id="114" src="11" tgt="12" wght="-3.73804336434021" />
        <Con id="115" src="0" tgt="12" wght="5.871709299792367" />
        <Con id="116" src="17" tgt="17" wght="4.5843954088341707" />
        <Con id="124" src="2" tgt="10" wght="1.6784414801495786" />
        <Con id="127" src="13" tgt="14" wght="8.66310149292011" />
        <Con id="130" src="9" tgt="16" wght="-2.5312366835829856" />
        <Con id="131" src="13" tgt="11" wght="-5.3328930231162479" />
        <Con id="149" src="11" tgt="16" wght="-1.0589419856619855" />
        <Con id="150" src="5" tgt="15" wght="2.485254972721811" />
        <Con id="162" src="0" tgt="11" wght="3.3463173211097055" />
        <Con id="173" src="18" tgt="17" wght="0.974328135631866" />
        <Con id="197" src="17" tgt="13" wght="3.1633365939002278" />
        <Con id="200" src="12" tgt="10" wght="7.5196710086221552" />
        <Con id="212" src="6" tgt="17" wght="2.0805829106555738" />
        <Con id="215" src="0" tgt="17" wght="-9.3380587901441441" />
        <Con id="218" src="9" tgt="217" wght="3.237764439918589" />
        <Con id="219" src="217" tgt="10" wght="1.1062717687723744" />
        <Con id="249" src="16" tgt="16" wght="6.6504027687680054" />
        <Con id="267" src="18" tgt="11" wght="-2.6305595009477694" />
        <Con id="273" src="9" tgt="14" wght="6.7359592017427365" />
        <Con id="281" src="217" tgt="16" wght="-2.3211276623392845" />
        <Con id="296" src="4" tgt="12" wght="3.4264647765591336" />
        <Con id="335" src="16" tgt="18" wght="-6.0220476479620455" />
        <Con id="379" src="1" tgt="11" wght="2.8892713692039251" />
        <Con id="543" src="3" tgt="17" wght="3.66500377189368" />
      </Connections>
    </Network>
  </Networks>
</Root>