<Root>
  <ActivationFunctions>
    <Fn id="0" name="SteepenedSigmoid" prob="1" />
  </ActivationFunctions>
  <Networks>
    <Network id="796215" birthGen="6622" fitness="894.95416666666358">
      <Nodes>
        <Node type="bias" id="0" />
        <Node type="in" id="1" />
        <Node type="in" id="2" />
        <Node type="in" id="3" />
        <Node type="in" id="4" />
        <Node type="in" id="5" />
        <Node type="in" id="6" />
        <Node type="in" id="7" />
        <Node type="in" id="8" />
        <Node type="in" id="9" />
        <Node type="out" id="10" />
        <Node type="out" id="11" />
        <Node type="out" id="12" />
        <Node type="out" id="13" />
        <Node type="out" id="14" />
        <Node type="out" id="15" />
        <Node type="out" id="16" />
        <Node type="out" id="17" />
        <Node type="out" id="18" />
        <Node type="hid" id="1000" />
        <Node type="hid" id="1433" />
        <Node type="hid" id="1447" />
        <Node type="hid" id="1503" />
        <Node type="hid" id="1751" />
        <Node type="hid" id="1803" />
      </Nodes>
      <Connections>
        <Con id="110" src="4" tgt="10" wght="2.2276404206393905" />
        <Con id="112" src="13" tgt="18" wght="1.1600359327529053" />
        <Con id="117" src="7" tgt="16" wght="-2.4502830126784549" />
        <Con id="121" src="12" tgt="15" wght="-0.54794989151377982" />
        <Con id="138" src="12" tgt="13" wght="-2.1288319025188684" />
        <Con id="140" src="5" tgt="17" wght="1.8170889541613677" />
        <Con id="144" src="4" tgt="17" wght="-1.8076142827858472" />
        <Con id="176" src="10" tgt="11" wght="6.3111225133370024" />
        <Con id="183" src="5" tgt="16" wght="-3.6448293461382391" />
        <Con id="187" src="18" tgt="16" wght="4.1409686068072915" />
        <Con id="192" src="2" tgt="11" wght="-3.7741724468166269" />
        <Con id="193" src="1" tgt="18" wght="-2.318861186504364" />
        <Con id="202" src="3" tgt="11" wght="2.4112514152570168" />
        <Con id="203" src="9" tgt="14" wght="0.12948217832375633" />
        <Con id="208" src="5" tgt="11" wght="1.242180887834303" />
        <Con id="222" src="4" tgt="12" wght="3.1906652301540337" />
        <Con id="228" src="5" tgt="18" wght="3.3070545802831495" />
        <Con id="242" src="14" tgt="16" wght="-0.8869555882645348" />
        <Con id="267" src="8" tgt="16" wght="-1.5531234163790941" />
        <Con id="268" src="14" tgt="18" wght="-3.1435820689197325" />
        <Con id="280" src="3" tgt="18" wght="0.36476331297308207" />
        <Con id="289" src="8" tgt="14" wght="-2.8664446352565829" />
        <Con id="305" src="8" tgt="17" wght="1.015900302552444" />
        <Con id="321" src="14" tgt="10" wght="6.2738432271299329" />
        <Con id="324" src="14" tgt="11" wght="-3.4895380629164476" />
        <Con id="327" src="7" tgt="13" wght="0.90744183522355182" />
        <Con id="329" src="9" tgt="17" wght="-2.20798734939558" />
        <Con id="350" src="18" tgt="15" wght="-0.55615616962313652" />
        <Con id="352" src="10" tgt="17" wght="-4.5605926110809429" />
        <Con id="356" src="1" tgt="12" wght="3.7533736478484547" />
        <Con id="363" src="15" tgt="10" wght="3.1890290372028476" />
        <Con id="364" src="16" tgt="11" wght="4.8750986438244581" />
        <Con id="369" src="16" tgt="17" wght="8.6775902511423926" />
        <Con id="395" src="13" tgt="12" wght="-6.0279510554227489" />
        <Con id="408" src="11" tgt="11" wght="0.31761189154869079" />
        <Con id="423" src="10" tgt="13" wght="0.51978422794491053" />
        <Con id="454" src="5" tgt="13" wght="0.46908235043873309" />
        <Con id="468" src="6" tgt="11" wght="3.8986205681103785" />
        <Con id="633" src="6" tgt="18" wght="1.6910920077519838" />
        <Con id="645" src="0" tgt="13" wght="-4.256152104692343" />
        <Con id="1002" src="1000" tgt="14" wght="3.8067850510213597" />
        <Con id="1019" src="1000" tgt="11" wght="6.254046780226215" />
        <Con id="1052" src="10" tgt="1000" wght="-1.4685933317914197" />
        <Con id="1172" src="8" tgt="1000" wght="-2.8974442566977459" />
        <Con id="1230" src="4" tgt="1000" wght="4.4277038152289121" />
        <Con id="1252" src="1000" tgt="18" wght="3.1157501315551968" />
        <Con id="1434" src="0" tgt="1433" wght="-0.85282598617605787" />
        <Con id="1435" src="1433" tgt="15" wght="3.271023435917173" />
        <Con id="1446" src="1433" tgt="11" wght="1.4824460551487981" />
        <Con id="1448" src="18" tgt="1447" wght="1.0540019532107074" />
        <Con id="1449" src="1447" tgt="15" wght="-6.3797429594446218" />
        <Con id="1450" src="3" tgt="1433" wght="1.989343092624233" />
        <Con id="1477" src="1" tgt="1433" wght="-1.8201225173243225" />
        <Con id="1495" src="6" tgt="1447" wght="4.1233378695324063" />
        <Con id="1504" src="18" tgt="1503" wght="5.8320948257031286" />
        <Con id="1505" src="1503" tgt="16" wght="2.6985654599023787" />
        <Con id="1535" src="9" tgt="1447" wght="-1.7375545531377419" />
        <Con id="1543" src="1433" tgt="12" wght="-2.2937827455832931" />
        <Con id="1582" src="17" tgt="1433" wght="-2.0779886719764948" />
        <Con id="1583" src="11" tgt="1433" wght="4.8584058154048" />
        <Con id="1752" src="0" tgt="1751" wght="-2.6036635959394503" />
        <Con id="1753" src="1751" tgt="13" wght="5.4784091850773686" />
        <Con id="1804" src="3" tgt="1803" wght="0.37198563106358051" />
        <Con id="1805" src="1803" tgt="13" wght="1.737281639581745" />
      </Connections>
    </Network>
  </Networks>
</Root>